digraph Tree {
node [shape=box, style="filled", color="black", fontname="helvetica"] ;
edge [fontname="helvetica"] ;
rankdir=LR ;
0 [label=<worst radius &le; 16.8<br/>gini = 0.5<br/>samples = 426<br/>value = [159, 267]>, fillcolor="#afd7f4"] ;
1 [label=<worst concave points &le; 0.1<br/>gini = 0.2<br/>samples = 284<br/>value = [25, 259]>, fillcolor="#4ca6e8"] ;
0 -> 1 [labeldistance=2.5, labelangle=-45, headlabel="True"] ;
2 [label=<area error &le; 91.6<br/>gini = 0.0<br/>samples = 252<br/>value = [4, 248]>, fillcolor="#3c9fe5"] ;
1 -> 2 ;
3 [label=<area error &le; 48.7<br/>gini = 0.0<br/>samples = 251<br/>value = [3, 248]>, fillcolor="#3b9ee5"] ;
2 -> 3 ;
4 [label=<gini = 0.0<br/>samples = 247<br/>value = [2, 245]>, fillcolor="#3b9ee5"] ;
3 -> 4 ;
5 [label=<gini = 0.4<br/>samples = 4<br/>value = [1, 3]>, fillcolor="#7bbeee"] ;
3 -> 5 ;
6 [label=<gini = 0.0<br/>samples = 1<br/>value = [1, 0]>, fillcolor="#e58139"] ;
2 -> 6 ;
7 [label=<worst texture &le; 25.6<br/>gini = 0.5<br/>samples = 32<br/>value = [21, 11]>, fillcolor="#f3c3a1"] ;
1 -> 7 ;
8 [label=<mean concave points &le; 0.1<br/>gini = 0.4<br/>samples = 12<br/>value = [3, 9]>, fillcolor="#7bbeee"] ;
7 -> 8 ;
9 [label=<gini = 0.2<br/>samples = 10<br/>value = [1, 9]>, fillcolor="#4fa8e8"] ;
8 -> 9 ;
10 [label=<gini = 0.0<br/>samples = 2<br/>value = [2, 0]>, fillcolor="#e58139"] ;
8 -> 10 ;
11 [label=<worst symmetry &le; 0.3<br/>gini = 0.2<br/>samples = 20<br/>value = [18, 2]>, fillcolor="#e88f4f"] ;
7 -> 11 ;
12 [label=<gini = 0.4<br/>samples = 3<br/>value = [1, 2]>, fillcolor="#9ccef2"] ;
11 -> 12 ;
13 [label=<gini = 0.0<br/>samples = 17<br/>value = [17, 0]>, fillcolor="#e58139"] ;
11 -> 13 ;
14 [label=<texture error &le; 0.5<br/>gini = 0.1<br/>samples = 142<br/>value = [134, 8]>, fillcolor="#e78945"] ;
0 -> 14 [labeldistance=2.5, labelangle=45, headlabel="False"] ;
15 [label=<gini = 0.0<br/>samples = 5<br/>value = [0, 5]>, fillcolor="#399de5"] ;
14 -> 15 ;
16 [label=<worst concavity &le; 0.2<br/>gini = 0.0<br/>samples = 137<br/>value = [134, 3]>, fillcolor="#e6843d"] ;
14 -> 16 ;
17 [label=<mean texture &le; 21.3<br/>gini = 0.5<br/>samples = 5<br/>value = [2, 3]>, fillcolor="#bddef6"] ;
16 -> 17 ;
18 [label=<gini = 0.0<br/>samples = 3<br/>value = [0, 3]>, fillcolor="#399de5"] ;
17 -> 18 ;
19 [label=<gini = 0.0<br/>samples = 2<br/>value = [2, 0]>, fillcolor="#e58139"] ;
17 -> 19 ;
20 [label=<gini = 0.0<br/>samples = 132<br/>value = [132, 0]>, fillcolor="#e58139"] ;
16 -> 20 ;
}